-0.57
-0.64
-0.59
-0.27
-0.08
-0.12
0.27
0.49
0.64
0.80
1.07
1.29
1.47
1.42
1.58
1.13
0.65
0.36
-0.02
-0.25
-0.46
-1.05
-1.20
-1.75
-2.11
-2.36
-3.10
-3.34
-3.85
-4.76
-5.28
-5.73
-5.38
-4.59
-4.65
-4.96
-6.36
-6.79
-6.35
-6.45
-6.32
-6.21
-6.83
-6.68
-6.50
-6.39
-5.90
-4.79
-3.55
-3.45
-3.72
-4.06
-4.05
-3.72
-3.41
-2.60
-2.57
-2.42
-2.91
-2.61
-3.58
-3.19
-3.02
-3.70
-3.41
-2.89
-2.79
-2.87
-3.07
-2.80
-2.80
-2.48
-2.51
-2.87
-3.02
-2.40
-1.17
-0.59
-0.40
-0.32
-0.41
0.17
0.15
0.31
-0.70
-0.19
-0.19
-0.80
-0.71
-0.84
-1.06
-1.10
-0.79
-0.92
-1.03
-0.88
-1.31
-0.97
-0.80
-0.82
-0.80
-1.10
-1.31
-1.20
-0.98
-0.79
0.10
0.08
0.20
0.15
-0.22
-0.72
-0.96
-1.30
-1.47
-2.42
-2.47
-1.92
-1.50
-1.40
-0.92
-0.95
-0.26
0.18
-0.04
0.03
0.43
1.44
2.00
2.21
2.40
2.55
3.29
3.22
2.56
2.40
2.04
2.03
1.30
1.92
1.42
1.35
0.83
0.81
0.39
0.22
0.51
1.16
1.49
1.78
1.74
1.90
1.77
0.53
-0.19
-0.11
-0.26
-0.37
-0.40
-0.06
-0.28
-0.72
-0.48
-0.80
-0.93
-0.66
-0.58
-0.53
-0.21
0.33
1.52
1.63
1.30
1.93
1.92
1.72
2.74
2.28
2.21
2.81
2.77
2.68
3.44
3.17
3.43
3.22
3.69
3.53
3.92
4.27
3.59
4.39
4.48
4.55
4.38
3.84
3.43
3.50
2.63
3.59
3.35
2.90
2.18
1.64
0.55
0.56
1.07
1.04
1.22
1.13
1.07
1.22
-0.20
-1.41
0.60
1.13
0.74
-0.44
-0.48
-1.31
-1.94
-1.84
-1.25
-2.74
-3.62
-3.15
-2.88
-3.59
-3.98
-4.34
-5.20
-5.96
-6.12
-5.56
-5.15
-4.40
-2.73
-1.52
-3.99
-4.86
-4.04
-3.75
-5.09
-4.94
-4.84
-5.45
-5.30
-5.53
-5.12
-4.98
-5.17
-5.19
-4.99
-4.97
-4.51
-4.85
-5.10
-4.77
-5.09
-4.47
-4.13
-4.36
-4.63
-4.76
-5.30
-4.38
-3.67
-2.91
-2.76
-2.82
-2.88
-3.47
-3.32
-3.67
-3.89
-4.27
-4.27
-4.75
-4.17
-3.84
-3.80
-3.44
-3.17
-2.78
-2.66
-2.83
-2.80
-2.88
-2.25
-2.14
-1.94
-1.72
